-355528484
-1036166380
-92969374
906560298
-833339244
547019420
-793434296
-1621014686
-335750912
-507389204
2044459318
991849234
1635068154
-271544684
1799924032
-1554897452
1670034152
-404609264
-1312845138
603162426
647418752
-578014808
-698567404
-2017534324
73431926
228911671
224334680
187835888
-1709817956
1708478914
720719566
710801232
74273455
-1379498956
-373328919
-962358107
919819385
919928230
1818333360
-1405271265
-1970606894
-1914764256
190243558
-2071936319
779136048
851854622
1938050194
654160368
-2083696977
-1055361852
-19735448
1717397840
991134604
2141307931
-1881304544
1446177958
1167329004
1273815701
1240744720
340902436
-543175280
1968376610
-902715370
-879932476
837039197
1015017600
-1512929083
-97178640
442258043
-1762382234
1347812124
-2005884360
739569620
-2057088400
273171096
-2025249323
-363031862
1149690046
43127808
883560228
-428743995
185931708
-1122046076
-1972596262
627492726
-24540081
-1934044432
488978696
848636478
1445354272
1017486827
2039457766
-1237966434
1605550007
2014289370
-625348554
1865368488
-396735312
-1880885276
-1916719216
-1893945810
-313227170
-1861013378
310461983
2068984736
926323284
-494111329
-308421292
-90368780
40268069
1459031620
1827830390
-1949803304
2001880235
969048743
-1535709108
-458314496
-1517013444
1534876796
1413935049
-1837904746
-428542848
392414677
945888560
1847961024
-1767584216
-1372973734
1308721840
-2118135824
488849301
1872375716
-1849341397
1586184562
219289017
-223294582
687511413
-461493454
1489786043
-553428060
2127393391
-94009644
1802058638
-425741338
1487586496
-1378798841
-830747894
-1622379493
1363444776
-409917626
-1893026766
129975114
-1810973408
803563832
608958807
1741811804
1589854348
40928956
-142697992
207836316
206914062
-1349846847
2063420624
-950781888
624623332
1411349967
736801171
310995892
-1145189226
665006128
1102694388
-33259708
-147609408
1365214592
601814703
-1633272352
-1965603991
1672774770
-526439160
-252520318
-1981980348
1418236432
1850161430
-1162564428
-952017088
-597366202
-369467064
1083825762
319850267
1720160858
629862568
-1652191813
-1765344263
-723074579
-1004371284
543958984
-2037425504
1570141551
-1378170210
-366709762
-22043586
-956209615
1797697528
-497521076
807325679
-1598057893
1264921078
-320383594
-347090340
-1583671596
1610684360
-2136758872
-2019292835
-950670178
529046242
213170078
-104220896
-1995912136
431226417
969018308
-222502229
-341518856
474739248
1402881121
726098176
394869856
-355254572
1322724820
1336640838
1091015056
2110220232
-143986984
-1707150104
-737921174
-2033385088
-1553204435
-1729033576
-1291716028
194037348
-2094382112
-1935648132
-1208491918
-764458336
1062604103
-722078339
616845566
652224413
-173790805
-1491794672
419130552
-1333719221
-1859708238
-1727955052
1445192616
-743284788
-1614427587
575325024
-1608594296
-130548768
1993615531
-1261954056
-1098827787
-1636387328
528251384
1189544752
-407211751
1876540345
-1081443726
-1179196191
313690126
219891679
1211919459
-1758151049
-26848093
620964450
591839867
-2047831920
41728864
-1235704012
1546672491
-705657884
822951952
-1589466185
835352896
-352630684
-979273266
-1666864216
-1800371536
221536737
-1820401112
-1010051006
-665709308
-1498788558
-1278646790
1757495135
-1739533360
-224700795
-97260474
-632228176
1982095522
2118288416
-599041944
1595362681
536612028
218685652
-771725824
560263780
-1896926112
-984288597
-2058659762
838238214
216520112
1741805188
-1547579874
-1084981543
1939993980
1328378440
1896207608
398541399
1146528970
566916223
1228578468
579670294
588656663
-971198880
-1055375142
-881981074
-1584785320
501321381
867812698
-1008636642
-507493288
1610716295
1081826789
1715398198
-981102748
-753946439
-765887511
724550552
-883422252
1290858040
182418104
-745972830
-458509860
-729252912
-707753932
55508762
-1118613174
484269009
-738982104
-1596344447
-1749819088
-347396121
-38412592
-2133043344
1409975600
-940592958
1373418688
1346106104
1672532416
-924770674
-1742628105
167945228
1014406512
1236820813
472137820
863546012
-1784895380
1447332768
-1199967040
-358900333
-124774336
-1113765654
-345848716
925894980
-379968680
83203786
-2091554180
2075403121
-1176167382
-252727179
-1317283664
1377064350
-2030847494
610959144
2075928990
-2138492384
1353745954
1566188590
-377385852
343740874
-777772687
1640628352
1115924263
-1415770030
-1815246592
-1299578500
-80786224
1224310028
1744051076
-1419629050
-1519401475
-910099719
1324731416
-172181031
-1352025844
1811872544
631490238
471283776
2072132818
895264927
-863535752
-1546930462
1165762828
1328631213
-289506743
711010496
347906656
701958117
1781544640
428194348
-493799049
226594716
124626140
-1130425072
712331784
1193166953
1379865527
691869632
-66268788
-1912985847
-1606889517
-672938452
520745097
1321304096
-1121931568
-593700098
1599727688
276959767
1422089552
1447209410
-455789400
-1967874660
-826841976
-2120067720
1523557933
1968320874
-1978646044
1063047608
-837283892
-2082631764
-589241888
992406392
-295922483
-1421876671
-996373850
1594558452
-435760757
-1994618824
1961835784
1467184743
-631151798
-325759304
1703383602
1322693520
-1566158836
-318035152
-1250447162
-1850354520
1275137383
1649727062
894809414
426165811
-135971696
-1907232672
343335590
-291175638
731518245
298731307
1029066548
-2085622424
-2050889743
1014080475
-31151275
1266846440
-1824008918
1728947352
552481384
1650994104
-1760628207
487094956
1301121536
-100141752
1656841624
-1853820448
1622258006
176644504
-462876295
-116806628
816384362
-1627959704
429600600
-114571506
491902740
-1072627086
-1425727764
-1398136536
1574528398
-1220148642
890360384
1700350192
-117969268
1819064853
1470667539
1884611153
-2046822028
1172420165
-584563984
743254915
103539056
-1114335446
760814424
-307024844
-878377590
338745398
-1675369552
-878843200
2124486416
-1476997645
-990261776
-119335120
1410770753
486582130
-446438824
1050236338
1959679808
-1990452844
1096668291
279724608
1542176206
-333332959
429893018
1878280620
-189735284
-165648623
1955588436
-641810177
-678703292
-66222752
-1498761732
-1548980497
-879421506
-2121390974
1029629634
-122835458
378961328
1463381612
-1727782346
933409218
2020313998
1032294320
717825038
-834096968
632324284
464850812
-1763024666
772010952
-1239327472
-88429576
1425827868
127736336
1829208612
-776916076
351342195
-1915102342
1670666462
-1962885352
-1747368032
1490606578
-943455616
2031917418
-1771727318
1019035186
-964868096
-1828988620
581364950
1980828576
1489749893
2045018686
366095699
1020034608
736790772
-1028181925
-1042445152
1877008704
333299376
1509330874
-1744356860
1741230838
-637082959
-214362039
1903980220
688873119
682652886
107372524
-2039321842
-1081709066
1965191174
-1982251700
-1054953001
-1490356766
94273808
-1305120858
-576472920
795504826
-144633776
1458538708
-543001584
255909328
-1002995248
1809362566
-44462240
-1147137918
-2121747445
-1336618016
-37968770
-375531720
575124220
-1744836054
1859900612
-417502184
1614752137
987519427
1551443797
2137438261
2116388240
772764828
-1879993792
1837722309
269832860
2144461067
-1301068590
-1538020320
-1479666064
1706717019
-1285591512
-1094723749
1790034014
1696649700
1078978632
738265956
-1593495856
-1988828032
-1661495479
-1230439993
-1365468820
-300326304
1567696168
-1376988774
-1470627406
140227474
1145247579
1047287072
-223545880
772893486
-1656392573
-149596231
-1663640640
820839136
-1699386434
-4613162
552826028
-1517983291
288849446
929340341
-879966512
79690455
-485741747
328628481
1947743615
-937876032
-1890660432
-1225414532
1743353552
1520421527
-1561480800
-1393701014
-1834181460
-1359211134
870045110
-1619220672
472406857
348412677
2112698880
-1379413906
-1556989162
986459308
870837636
-350993722
-842435124
-111058822
1266270512
834409322
1277691840
-1440865296
1524678704
-346798988
-217364454
-514167472
657336608
1453921046
354051848
1894815648
305676703
-1070243903
-793597879
1901705252
1464387473
884937608
32801076
-291300921
620630684
380787488
520182202
-4731232
-460316784
1184787056
-1863930970
2009400178
-2067637467
2043518896
1924972640
1624488012
451621512
1492157230
7103112
312635417
1130972729
2016350835
2047590965
-1249554469
-1653414766
-2049166186
1886564835
926028344
1091253406
-1710495876
-353183757
-38197584
389830316
-263347008
939316672
-487970527
1647761560
1335818068
-1879314007
833224055
248885512
1661550239
-814883230
196867383
1593941768
843148528
-1275331491
-171820516
-2071075749
-1660898490
753206478
-1307830148
-958700801
879912704
639907292
814485526
283907905
887157468
-1013539340
-1804310306
-783476225
-782379472
704541634
1665268835
164459432
-1042224444
188756908
1623928240
1846486012
405978782
-2064015402
-1081403214
-638169336
741423592
235304651
1869765964
-226261974
1012331656
-586767184
443975872
-1524608884
-633124993
1700362197
1916357413
1085284046
-2134975970
1366669234
-693097256
-862647028
-872660137
467100002
-52595230
1871698039
1107267831
-458898536
373989040
239236650
1325184580
149083432
-1320417965
-515687060
-214718886
1519199062
-1670199632
55161497
743576970
1453560309
-1069475228
1812020320
-2127382102
638720854
-1070296830
356137471
-436891860
-17121352
727650119
-1173790624
1394387266
1359540976
1431786862
1580856979
1421014928
313958746
2024571145
-535043888
-1626602144
955560886
1289308528
1833293252
-104458460
2057176323
-408680684
-616784588
1874704452
1411399740
-1267736200
723936506
-206417176
-528475538
-1440831073
73581214
1887141910
-191564111
810665776
-2077325175
-1949912294
1657249658
-656444886
-539436864
533999810
-826889782
2083276430
2094621046
773338933
-827768375
-246786464
-952374654
-1205263574
-1811923435
1114785952
50839428
-2021357409
892997780
1462214624
644449198
1267901796
-1444329492
-73091660
252675348
913797492
1520002013
1191677572
1732793944
-221403358
614076013
-1732520758
1980900671
1166392097
-1878604277
-444346354
1156408712
-653974797
-509762116
-1520371891
1388475228
-2056968379
-2134342167
580277270
104796392
1153414286
2044458015
788582804
1443815370
738426894
1487436924
-453848468
-1964114089
209330756
-613290945
-1037561851
865012481
1312221576
-1335493716
-341833640
279783726
2011959440
-1858805472
-2031328824
100747512
2108164048
610909028
-300131986
765550384
-517221676
935603681
-63322865
-806924944
1010462241
-584219838
-351470040
-102416614
1022318420
1672923968
-1499699923
1091310999
-917844798
1172985462
-1933063984
860195480
-51648820
1844090970
836271140
2017713474
-533837968
-1334301568
-341127672
1382506431
-1172124559
780791436
-992927365
-993170832
-1121730702
1972053057
678761176
1999231731
36123006
-1023030288
-999824156
1541694279
127677032
-306672782
825405301
-649976932
-190676352
-304022479
-284623520
187082346
-1486859903
-1493597010
-1376204186
125409884
227928496
632000014
140731694
1012186240
1691433013
1033097356
495004064
-1804924816
-484148592
749174784
1405139380
-602900600
-1369526928
1137412732
-1122601896
322819068
-683111234
802260180
-80348662
-891658848
761305648
1855058800
-1893918330
-1024838802
47920352
498962898
-1939091168
-1800909520
-1925723215
1976853678
1043176168
761880519
956668690
-10417739
-1541671376
976981196
-408617242
1369991582
414025612
-1560404396
592110224
-912488166
-8271618
-841109487
-448798190
-1035968272
690944029
1234260826
-1281092049
-1196601648
-444119682
-115168903
2056064899
-2123915408
-1151357006
-2046709648
2071262130
1068853168
-1702439857
-680874860
548850720
-1639997214
-1294766160
-1861649672
185446483
-816842354
-2041414279
1170733568
474048568
-284921042
-383518558
-1598150424
630567851
-253574886
-720707206
1626583123
-469701369
-1278441476
-1058399937
1469077594
-696500976
-1889145378
1063366714
-874342436
-1546452050
2103886808
-620363752
-1751369151
241526142
852896851
439941739
-1484220904
-1160105300
2136045888
1387196406
303588464
-376578981
-1797192261
-1544398123
-1504868807
1464870710
1575364510
-51338880
1469232276
290767368
1719895806
1624816125
-1826590729
-1648466302
173192888
1410983168
-329182224
1381054122
722718056
815410382
834455552
1326477304
-858954243
-372911320
827742157
-394982600
1425664484
-664324976
80962736
-1353039191
263159744
-447838352
-548337204
-787368417
64566696
-1690536332
44613576
1145300812
306704629
1105688024
1093188928
238457072
-1156056610
14930577
175186384
-399706496
-1579283936
1761937062
-1597971404
-563941780
-399821682
-714372528
870008288
-1965548426
-575185318
714767162
650079976
-1673205194
610740735
-1162823052
-716510596
581827442
564977825
-2013999257
672389788
1381736290
510479521
106186466
1587790468
996915501
-402614724
1402636965
-1316025033
1698589228
-1829870977
-1702617277
2966816
-1667515742
1107791248
-374141851
340897045
-1612669220
-1997939456
-45790228
-1446540886
647284626
748814441
-1500888
1423152768
-1513744924
42809293
972566592
-759368636
1516295282
1907080500
1726991850
-311100164
1164151953
-358088625
353215889
264729346
-632248143
-1951434560
-62521103
-490885008
356580890
-395664426
-1663820933
1448153395
-452935802
1182156740
-158682551
-1927527972
1849139982
1195588064
1891806970
-763483557
1123434720
906625179
1153870367
1457864118
-1567331336
531908688
-880399326
479645072
2051967285
-639009736
1706312900
