-637742013
-1608728966
-25131176
-1268815688
-1229275240
2093471404
-874491848
1560183121
-363840346
-1839648287
1956597600
-1947723072
1919816581
1895959344
-1779291390
-1959824305
-230836198
-927231255
-1020305452
275787864
-909265978
194605899
-1383265222
1050129408
1225098040
91521900
469824488
596398752
-1826324496
-1897248336
1759871273
-668767950
-2003525912
1444364732
1080185784
-593267172
1986166898
1891078500
-359413088
-1911835917
-1202291652
1506033678
1946864245
-151762248
49761984
1972810334
382990445
902873857
782447437
1824602814
69502611
899559658
2059675550
-2132944945
455803913
537559936
63027293
1176126822
1647408002
-1425550293
-1442859814
-1303136988
-1475078054
-1122192969
-10454043
1881874314
-1981668512
-903704776
577934756
-1559308316
363279917
685589692
-1414725716
-743169999
-796955776
1535785052
-1309136572
-647704376
-1561898080
1560900770
-808539234
960163147
1391553036
-52178592
1009830586
-1399072159
-1033491384
1929274952
1263178913
-925731636
-117268486
1307169434
-1004986054
1514682556
818357026
-253162126
845132247
-929754473
442385915
1833795393
1898773420
-301519532
1649513616
1948382008
1937208267
1133125740
1125322729
-1317620776
-1633360384
1330262086
-2014147061
-182098752
1211057645
-1697799362
953640696
2086950610
-601578872
506434626
-1184283928
863439422
1293493987
-848824008
452641837
-2078493861
1868571371
1837855366
2059754202
-422750302
-183535708
-975333546
737151520
1641561940
-1913024968
1277470292
-414937952
-852338562
2130108800
567887636
-607841628
-501256734
-1579071407
191573208
1486144630
-1782739357
1621502960
1572634406
361511608
1437381844
1036132960
-1799043144
392158755
216304105
1028453052
1866219158
7189984
1786400055
-440963671
-2087548240
299710343
-593330648
-1576879444
602713991
413257
1481500723
-1392181396
515700089
-516932600
368592712
654269472
580699944
2005464320
1432096655
509568428
885441352
-956452852
931542890
-1782796548
-2031442009
-1335760216
1180938256
200472636
-1331803672
-935928102
1688804144
1462717978
359848211
-884164220
-1100453852
-119788052
779318782
-1556439332
843058296
202823936
-1503070004
-1234301228
-2006819328
-1615887730
1992154784
1727304444
-1116005189
-1875153782
402635610
811709292
777775961
24593518
-220249654
-705862136
-1546832541
1387047968
1803367460
-692237824
1491220660
1342220625
833361998
-2039871208
904631833
-634434176
-1401062910
733950166
1127933936
530222728
379920930
1678519392
-810130176
1393177187
-392505449
634587729
-1721077810
-2130654780
1291631480
1914864572
-2142310367
-1575490264
1693497460
1409070852
680967312
-1812689206
-827391013
1999193496
-1631161117
-956665214
-654140464
1317338056
-1168409590
-1223367280
-584977713
-1998434236
-1965821810
980171504
1023818802
-2061772892
-1622578695
-445828688
1817939706
-462018224
577730290
-1113677834
-1120543642
-2033789582
157887813
1159326708
-1502801272
1229040160
-206506478
127238581
-1203020544
-497861216
586287887
-975753588
-998309643
-1320210060
-860073016
-1914571274
-976667856
-444112444
1456293852
-2070395864
-1091367424
-105132486
-740183608
1775793439
2036853688
-896002782
18709056
2123294856
376567810
976212363
-1486258816
61781381
1408342080
1904010014
766843343
2011869248
492200364
3371358
-550965076
-65121704
2032104038
187699076
117056936
-1775508540
-917676384
899512386
1106052800
1079992704
845688230
-788178046
-1512363848
-856457575
826721676
-585819336
-1428396392
50678011
-42181783
1133457500
-208460710
1587451419
-750198098
1835357122
1231047625
1384481153
-1700093495
-1879397030
-1289419932
1036271643
1772210222
-1031332208
-1130043810
-2018553108
-707711744
-1446593133
-650459960
569560540
61187886
-1331021249
-669891114
113365024
1666161856
1114581852
1918323528
1657424718
660362960
477167487
1986807531
2068469260
444661126
580752279
959838916
-37088704
-2014054048
669995549
1660992070
-905195232
1132289706
-2109684672
-1634399104
-700954773
-59509824
635595012
-1134586249
1531991294
548995417
-1400501904
1162004282
1798938974
2040769398
-137245494
1710839896
1035133135
-1362899516
1248151182
-1138381160
-1674254312
-842212300
41294588
248004302
454527834
1887791888
-1073945979
1675231859
1208131078
-1584319040
-591168850
-1344306470
1045641600
-860581186
1138074678
811496891
-408917850
1215079021
-1334298111
2005943584
833983668
-2028439348
1796062171
-1893259448
1679596018
1214833622
-1170177391
1333022406
1707479105
604688198
1978890894
-1486015031
-1247607970
1578272455
750906210
-720927201
-1433336928
-1147215995
-2089422831
-871799526
1179107206
-1064508935
1784647796
769036441
1192524664
-1479661940
-468898336
-2071787506
1186797456
-1647822040
1821586920
1725979148
-1993473117
-2033515822
-24984640
817264240
1842735028
-1229201698
2064362353
199376092
